FANN_FLO_2.1
num_layers=3
learning_rate=0.400000
connection_rate=1.000000
network_type=0
learning_momentum=0.000000
training_algorithm=2
train_error_function=0
train_stop_function=0
cascade_output_change_fraction=0.010000
quickprop_decay=-0.000100
quickprop_mu=1.750000
rprop_increase_factor=1.200000
rprop_decrease_factor=0.500000
rprop_delta_min=0.000000
rprop_delta_max=50.000000
rprop_delta_zero=0.100000
cascade_output_stagnation_epochs=12
cascade_candidate_change_fraction=0.010000
cascade_candidate_stagnation_epochs=12
cascade_max_out_epochs=150
cascade_min_out_epochs=50
cascade_max_cand_epochs=150
cascade_min_cand_epochs=50
cascade_num_candidate_groups=2
bit_fail_limit=3.49999994039535520000e-001
cascade_candidate_limit=1.00000000000000000000e+003
cascade_weight_multiplier=4.00000005960464480000e-001
cascade_activation_functions_count=10
cascade_activation_functions=3 5 7 8 10 11 14 15 16 17 
cascade_activation_steepnesses_count=4
cascade_activation_steepnesses=2.50000000000000000000e-001 5.00000000000000000000e-001 7.50000000000000000000e-001 1.00000000000000000000e+000 
layer_sizes=12 17 3 
scale_included=0
neurons (num_inputs, activation_function, activation_steepness)=(0, 0, 0.00000000000000000000e+000) (0, 0, 0.00000000000000000000e+000) (0, 0, 0.00000000000000000000e+000) (0, 0, 0.00000000000000000000e+000) (0, 0, 0.00000000000000000000e+000) (0, 0, 0.00000000000000000000e+000) (0, 0, 0.00000000000000000000e+000) (0, 0, 0.00000000000000000000e+000) (0, 0, 0.00000000000000000000e+000) (0, 0, 0.00000000000000000000e+000) (0, 0, 0.00000000000000000000e+000) (0, 0, 0.00000000000000000000e+000) (12, 10, 5.00000000000000000000e-001) (12, 10, 5.00000000000000000000e-001) (12, 10, 5.00000000000000000000e-001) (12, 10, 5.00000000000000000000e-001) (12, 10, 5.00000000000000000000e-001) (12, 10, 5.00000000000000000000e-001) (12, 10, 5.00000000000000000000e-001) (12, 10, 5.00000000000000000000e-001) (12, 10, 5.00000000000000000000e-001) (12, 10, 5.00000000000000000000e-001) (12, 10, 5.00000000000000000000e-001) (12, 10, 5.00000000000000000000e-001) (12, 10, 5.00000000000000000000e-001) (12, 10, 5.00000000000000000000e-001) (12, 10, 5.00000000000000000000e-001) (12, 10, 5.00000000000000000000e-001) (0, 10, 5.00000000000000000000e-001) (17, 6, 5.00000000000000000000e-001) (17, 6, 5.00000000000000000000e-001) (0, 6, 5.00000000000000000000e-001) 
connections (connected_to_neuron, weight)=(0, 5.37470054626464840000e+000) (1, 5.18493881225585940000e+001) (2, -2.89279013872146610000e-001) (3, -6.84968032836914060000e+001) (4, 1.09811153411865230000e+001) (5, 1.48426370620727540000e+001) (6, -3.96153497695922850000e+000) (7, -1.99416046142578130000e+001) (8, 6.81350755691528320000e+000) (9, -6.50723576545715330000e-001) (10, -1.08970899581909180000e+001) (11, -3.15831661224365230000e+000) (0, 1.25551187992095950000e+000) (1, 3.34035754203796390000e+000) (2, 7.82803535461425780000e-001) (3, -2.19757580757141110000e+000) (4, 7.59663641452789310000e-001) (5, 2.42322134971618650000e+000) (6, -1.25419979095458980000e+001) (7, -5.41069269180297850000e-001) (8, -1.49957446289062500000e+003) (9, 5.87801313400268550000e+000) (10, 1.76025795936584470000e+000) (11, -3.36679577827453610000e+000) (0, 1.48193132877349850000e+000) (1, 1.22106581926345830000e-001) (2, -1.12402009963989260000e+000) (3, -9.10635173320770260000e-001) (4, 4.85812807083129880000e+000) (5, 6.60866355895996090000e+000) (6, 9.14327979087829590000e-001) (7, 1.71206378936767580000e+001) (8, -4.35717153549194340000e+000) (9, -4.55470228195190430000e+000) (10, 5.94973504543304440000e-001) (11, -1.78530228137969970000e+000) (0, 3.89183211326599120000e+000) (1, -1.46959304809570310000e-001) (2, -2.14816403388977050000e+000) (3, 4.54011321067810060000e-001) (4, 1.24739694595336910000e+000) (5, -1.93003654479980470000e+000) (6, -6.30565338134765630000e+001) (7, -2.65569061040878300000e-001) (8, -1.55709421634674070000e+000) (9, -1.02135516703128810000e-001) (10, -7.02663660049438480000e-001) (11, -1.86114966869354250000e+000) (0, 3.44973397254943850000e+000) (1, 5.50541937351226810000e-001) (2, -2.22420811653137210000e+000) (3, 4.89837765693664550000e-001) (4, 1.28491449356079100000e+000) (5, -1.60627198219299320000e+000) (6, -7.70854473114013670000e-001) (7, 8.90879109501838680000e-002) (8, 1.95233547687530520000e+000) (9, -1.31242096424102780000e-001) (10, -1.09392356872558590000e+000) (11, -1.68423426151275630000e+000) (0, -3.97666096687316890000e+000) (1, -4.37560319900512700000e+000) (2, -3.29062342643737790000e-001) (3, 2.77124834060668950000e+000) (4, 1.37829148769378660000e+000) (5, -1.44887237548828120000e+001) (6, -3.79087090492248540000e+000) (7, 4.17432250976562500000e+001) (8, -6.71063566207885740000e+000) (9, -2.05416679382324220000e+000) (10, -5.92272996902465820000e-001) (11, 3.58830779790878300000e-001) (0, 6.25652217864990230000e+000) (1, 1.42931854724884030000e+000) (2, 2.36053037643432620000e+000) (3, -1.52983021736145020000e+000) (4, -4.80349388122558590000e+001) (5, 1.67887225747108460000e-001) (6, -7.07411384582519530000e+000) (7, -3.01360011100769040000e-001) (8, 1.98819942474365230000e+001) (9, 4.04540395736694340000e+000) (10, -2.31712174415588380000e+000) (11, -6.22496700286865230000e+000) (0, -1.23027038574218750000e+001) (1, 7.16190528869628910000e+000) (2, 4.89617347717285160000e+000) (3, 2.55639290809631350000e+000) (4, 1.17591604590415950000e-001) (5, 5.39942932128906250000e+000) (6, 7.28592395782470700000e+000) (7, 1.24626970291137700000e+000) (8, 5.51629543304443360000e+000) (9, 2.94366121292114260000e+000) (10, -1.74495470523834230000e+000) (11, -2.10574364662170410000e+000) (0, 2.39612412452697750000e+000) (1, 1.09007453918457030000e+001) (2, -1.28907799720764160000e+000) (3, -1.42805683612823490000e+000) (4, 4.37293090820312500000e+002) (5, 8.60281562805175780000e+000) (6, 5.32481765747070310000e+000) (7, -1.55397682189941410000e+001) (8, 6.46491699218750000000e+001) (9, -1.50000000000000000000e+003) (10, -2.73460745811462400000e+000) (11, -5.63491249084472660000e+000) (0, 3.19768691062927250000e+000) (1, 3.50908546447753910000e+001) (2, 7.55020618438720700000e+000) (3, 6.37290120124816890000e-001) (4, -1.22451629638671880000e+001) (5, 1.96576061248779300000e+001) (6, 1.16978833007812500000e+003) (7, -9.76587280273437500000e+002) (8, 1.27977343750000000000e+003) (9, -6.44470764160156250000e+002) (10, -8.16812591552734370000e+001) (11, -1.57540404796600340000e+000) (0, 2.92005300521850590000e-001) (1, 2.63025207519531250000e+001) (2, -3.81421203613281250000e+001) (3, -3.92485082149505620000e-001) (4, -7.08258628845214840000e+000) (5, -4.27102327346801760000e+000) (6, -1.19023160934448240000e+001) (7, -9.60716187953948970000e-001) (8, 2.06384544372558590000e+001) (9, -3.76599621772766110000e+000) (10, -4.51880216598510740000e+000) (11, 2.26500377058982850000e-001) (0, 1.31996178627014160000e+000) (1, -1.22017021179199220000e+001) (2, 2.50420880317687990000e+000) (3, 9.08176757812500000000e+002) (4, 6.34941650390625000000e+002) (5, 1.20574676513671870000e+002) (6, -2.64595062255859370000e+002) (7, -3.57260942459106450000e+000) (8, -3.25222442626953120000e+002) (9, 1.47846447753906250000e+003) (10, 1.04461097717285160000e+002) (11, -1.33551464080810550000e+001) (0, 2.05152106285095210000e+000) (1, -9.98063534498214720000e-002) (2, -9.04873490333557130000e-001) (3, 6.96013331413269040000e-001) (4, 2.28722961425781250000e+002) (5, 6.94163894653320310000e+000) (6, 6.44672546386718750000e+001) (7, 3.64867758750915530000e+000) (8, -1.11047077178955080000e+001) (9, -1.47500000000000000000e+003) (10, -2.70523786544799800000e+000) (11, -1.42778539657592770000e+000) (0, -1.82681732177734380000e+001) (1, -5.69150047302246090000e+001) (2, -3.52862243652343750000e+001) (3, 1.02098789215087890000e+001) (4, 1.59078168869018550000e+001) (5, 3.23521499633789060000e+001) (6, 2.46478099822998050000e+001) (7, 3.87937879562377930000e+000) (8, -4.10696258544921880000e+001) (9, -4.93949508666992190000e+000) (10, -7.37611055374145510000e+000) (11, 5.52152156829833980000e+000) (0, 6.22121810913085940000e+000) (1, -4.23436522483825680000e-001) (2, -3.71979761123657230000e+000) (3, 6.48985743522644040000e-001) (4, 1.46272516250610350000e+000) (5, -1.78873801231384280000e+000) (6, 3.63712996244430540000e-001) (7, -1.71612370014190670000e+000) (8, 2.50811982154846190000e+000) (9, 2.43683874607086180000e-001) (10, -1.45544362068176270000e+000) (11, -2.64088511466979980000e+000) (0, 1.72107160091400150000e+000) (1, -6.70527517795562740000e-001) (2, -1.25791251659393310000e+000) (3, 5.50920532226562500000e+002) (4, -1.42868725585937500000e+003) (5, 9.10899543762207030000e+000) (6, -8.09271163940429690000e+001) (7, -1.48258423805236820000e+000) (8, 7.33341491699218750000e+002) (9, 5.02536773681640630000e+001) (10, 4.78192478418350220000e-001) (11, -3.99917721748352050000e-001) (12, -5.89645028114318850000e-001) (13, 2.68082797527313230000e-001) (14, -2.15237513184547420000e-001) (15, 1.48086994886398320000e-001) (16, 1.32548972964286800000e-001) (17, 1.65661260485649110000e-001) (18, 1.35152161121368410000e-001) (19, 1.20097434520721440000e+000) (20, 2.69859224557876590000e-001) (21, 5.77680878341197970000e-002) (22, 1.54093906283378600000e-001) (23, 9.79698225855827330000e-002) (24, 3.90306979417800900000e-001) (25, 4.10815924406051640000e-001) (26, 3.21252256631851200000e-001) (27, 2.67627149820327760000e-001) (28, 1.48608148097991940000e-001) (12, -1.82233944535255430000e-001) (13, 4.78834062814712520000e-001) (14, 1.38245666027069090000e+000) (15, 4.39368933439254760000e-001) (16, 4.30552840232849120000e-001) (17, -1.87475457787513730000e-001) (18, 1.52045655250549320000e+000) (19, -1.01783668994903560000e+000) (20, 3.88825446367263790000e-001) (21, 1.78592002391815190000e+000) (22, -1.92707669734954830000e+000) (23, 4.82501015067100520000e-002) (24, -3.06078672409057620000e-001) (25, -6.17423467338085170000e-002) (26, 4.43513184785842900000e-001) (27, 1.19132377207279210000e-001) (28, -2.59357750415802000000e-001) 
