FANN_FLO_2.1
num_layers=3
learning_rate=0.700000
connection_rate=1.000000
network_type=0
learning_momentum=0.000000
training_algorithm=2
train_error_function=1
train_stop_function=0
cascade_output_change_fraction=0.010000
quickprop_decay=-0.000100
quickprop_mu=1.750000
rprop_increase_factor=1.200000
rprop_decrease_factor=0.500000
rprop_delta_min=0.000000
rprop_delta_max=50.000000
rprop_delta_zero=0.100000
cascade_output_stagnation_epochs=12
cascade_candidate_change_fraction=0.010000
cascade_candidate_stagnation_epochs=12
cascade_max_out_epochs=150
cascade_min_out_epochs=50
cascade_max_cand_epochs=150
cascade_min_cand_epochs=50
cascade_num_candidate_groups=2
bit_fail_limit=3.49999994039535522461e-01
cascade_candidate_limit=1.00000000000000000000e+03
cascade_weight_multiplier=4.00000005960464477539e-01
cascade_activation_functions_count=10
cascade_activation_functions=3 5 7 8 10 11 14 15 16 17 
cascade_activation_steepnesses_count=4
cascade_activation_steepnesses=2.50000000000000000000e-01 5.00000000000000000000e-01 7.50000000000000000000e-01 1.00000000000000000000e+00 
layer_sizes=12 17 3 
scale_included=0
neurons (num_inputs, activation_function, activation_steepness)=(0, 0, 0.00000000000000000000e+00) (0, 0, 0.00000000000000000000e+00) (0, 0, 0.00000000000000000000e+00) (0, 0, 0.00000000000000000000e+00) (0, 0, 0.00000000000000000000e+00) (0, 0, 0.00000000000000000000e+00) (0, 0, 0.00000000000000000000e+00) (0, 0, 0.00000000000000000000e+00) (0, 0, 0.00000000000000000000e+00) (0, 0, 0.00000000000000000000e+00) (0, 0, 0.00000000000000000000e+00) (0, 0, 0.00000000000000000000e+00) (12, 4, 5.00000000000000000000e-01) (12, 4, 5.00000000000000000000e-01) (12, 4, 5.00000000000000000000e-01) (12, 4, 5.00000000000000000000e-01) (12, 4, 5.00000000000000000000e-01) (12, 4, 5.00000000000000000000e-01) (12, 4, 5.00000000000000000000e-01) (12, 4, 5.00000000000000000000e-01) (12, 4, 5.00000000000000000000e-01) (12, 4, 5.00000000000000000000e-01) (12, 4, 5.00000000000000000000e-01) (12, 4, 5.00000000000000000000e-01) (12, 4, 5.00000000000000000000e-01) (12, 4, 5.00000000000000000000e-01) (12, 4, 5.00000000000000000000e-01) (12, 4, 5.00000000000000000000e-01) (0, 0, 0.00000000000000000000e+00) (17, 4, 5.00000000000000000000e-01) (17, 4, 5.00000000000000000000e-01) (0, 0, 0.00000000000000000000e+00) 
connections (connected_to_neuron, weight)=(0, -4.70149755477905273438e+00) (1, 8.41116180419921875000e+01) (2, 7.58046674728393554688e+00) (3, -3.62896881103515625000e+01) (4, 3.19210262298583984375e+01) (5, 8.27488660812377929688e-01) (6, -1.62548389434814453125e+01) (7, -1.24592342376708984375e+01) (8, -1.15688772201538085938e+01) (9, 1.33070170879364013672e+00) (10, -5.60527181625366210938e+00) (11, 3.72781343758106231689e-02) (0, -8.53295564651489257812e-01) (1, -1.89430709838867187500e+02) (2, 2.57696658372879028320e-01) (3, 5.74359989166259765625e+00) (4, 1.10108399391174316406e+00) (5, 1.10458326339721679688e+00) (6, -3.02332806587219238281e+00) (7, 6.29322052001953125000e+00) (8, 4.71469955444335937500e+01) (9, 4.56565171480178833008e-01) (10, -5.78773319721221923828e-01) (11, -3.02572298049926757812e+00) (0, 9.36378906250000000000e+02) (1, -3.06436939239501953125e+01) (2, 3.72285485267639160156e-01) (3, 3.68364048004150390625e+00) (4, -3.03941559791564941406e+00) (5, 3.74233150482177734375e+00) (6, 7.97855663299560546875e+00) (7, 8.17897987365722656250e+00) (8, -3.27591133117675781250e+00) (9, 9.06954467296600341797e-01) (10, 2.94092357158660888672e-01) (11, -6.58340990543365478516e-01) (0, 3.76684761047363281250e+01) (1, -1.45479798316955566406e-01) (2, -5.57541251182556152344e-01) (3, -1.76407790184020996094e+00) (4, -5.91655313968658447266e-01) (5, -2.85768651962280273438e+00) (6, -5.31089925765991210938e+00) (7, 1.04644513130187988281e+00) (8, -4.14240531921386718750e+01) (9, 4.74326658248901367188e+00) (10, -9.48985040187835693359e-01) (11, -9.86634612083435058594e-01) (0, 2.02120361328125000000e+01) (1, 2.15184955596923828125e+01) (2, 1.82081460952758789062e+00) (3, -3.21873569488525390625e+00) (4, 1.78383426666259765625e+01) (5, -5.91283702850341796875e+00) (6, -5.25553035736083984375e+00) (7, 1.36708700656890869141e+00) (8, -2.22771282196044921875e+01) (9, 5.53364694118499755859e-01) (10, -1.41150689125061035156e+00) (11, -2.62252378463745117188e+00) (0, 7.06175231933593750000e+01) (1, -4.03898715972900390625e+00) (2, -7.69718468189239501953e-01) (3, 2.30397200584411621094e+00) (4, -9.22968769073486328125e+00) (5, -9.44669917225837707520e-02) (6, 3.28492951393127441406e+00) (7, 3.07578492164611816406e+00) (8, -1.51902503967285156250e+01) (9, 2.91685342788696289062e+00) (10, 7.18305468559265136719e-01) (11, -9.83022034168243408203e-01) (0, 2.77852874755859375000e+02) (1, -4.39496421813964843750e+00) (2, -5.19161176681518554688e+00) (3, -5.69421112537384033203e-01) (4, -1.28126907348632812500e+01) (5, -3.93975853919982910156e-01) (6, 2.03413695096969604492e-01) (7, -6.42470779418945312500e+01) (8, -9.55190086364746093750e+00) (9, -3.46896095275878906250e+01) (10, 3.66643875837326049805e-01) (11, 4.55441474914550781250e+00) (0, -7.33625717163085937500e+01) (1, 1.70335117727518081665e-02) (2, -3.28296637535095214844e+00) (3, -5.55230498313903808594e-01) (4, 1.65078890323638916016e+00) (5, -4.46639448404312133789e-01) (6, 1.57477304339408874512e-01) (7, -1.02874641418457031250e+01) (8, 1.40606708526611328125e+01) (9, 2.09244799613952636719e+00) (10, -1.30095884203910827637e-01) (11, -1.91202625632286071777e-01) (0, 8.45031356811523437500e+01) (1, 1.50034246444702148438e+01) (2, -1.94870078563690185547e+00) (3, 1.50572452545166015625e+01) (4, 1.05723676681518554688e+01) (5, 1.19940602779388427734e+00) (6, -1.09976186752319335938e+01) (7, -1.66390781402587890625e+01) (8, -1.07306213378906250000e+01) (9, 2.29585247039794921875e+01) (10, -1.52863264083862304688e+00) (11, -3.12411975860595703125e+00) (0, 5.01431617736816406250e+01) (1, 2.49139404296875000000e+01) (2, -5.75738239288330078125e+00) (3, 1.18679151535034179688e+01) (4, 8.52000198364257812500e+01) (5, -1.94981193542480468750e+00) (6, -5.11910362243652343750e+01) (7, 1.36971092224121093750e+00) (8, -1.29257698059082031250e+01) (9, 1.14288110733032226562e+01) (10, 1.51402063369750976562e+01) (11, -5.60403347015380859375e+00) (0, 2.21604404449462890625e+01) (1, -6.52718007564544677734e-01) (2, -2.47137713432312011719e+00) (3, -9.91137146949768066406e-01) (4, 2.04022622108459472656e+00) (5, -6.86143219470977783203e-01) (6, 6.14946365356445312500e-01) (7, 2.43431735038757324219e+00) (8, -2.84668121337890625000e+01) (9, -5.25449573993682861328e-01) (10, 1.85038387775421142578e+00) (11, -1.35648965835571289062e-01) (0, -7.11885499954223632812e+00) (1, 9.45398449897766113281e-01) (2, 6.46898269653320312500e-01) (3, -4.83583307266235351562e+00) (4, -4.65968360900878906250e+01) (5, 5.30096721649169921875e+00) (6, 2.16801528930664062500e+01) (7, -4.95147848129272460938e+00) (8, -3.99186372756958007812e+00) (9, 4.83583688735961914062e-01) (10, 4.04349178075790405273e-01) (11, -1.61332535743713378906e+00) (0, 6.11568527221679687500e+01) (1, -3.86702466011047363281e+00) (2, 1.03187489509582519531e+00) (3, 1.00058765411376953125e+01) (4, -2.53389472961425781250e+01) (5, 8.79500329494476318359e-01) (6, 2.31824421882629394531e+00) (7, 3.61617588996887207031e+00) (8, -1.44578781127929687500e+01) (9, 1.29154658317565917969e+00) (10, 5.97471833229064941406e-01) (11, -3.81668806076049804688e-02) (0, -1.50000000000000000000e+03) (1, -1.16489672660827636719e+00) (2, 2.63551378250122070312e+00) (3, -2.76486849784851074219e+00) (4, -5.66271114349365234375e+00) (5, 4.38761186599731445312e+00) (6, 1.66147589683532714844e+00) (7, -2.85047378540039062500e+01) (8, -5.08105712890625000000e+02) (9, 7.56782293319702148438e-01) (10, 7.26123675704002380371e-02) (11, -8.54008376598358154297e-01) (0, 1.35167531967163085938e+01) (1, -1.35299539566040039062e+01) (2, 2.84329915046691894531e+00) (3, -2.32273578643798828125e+01) (4, 2.78964591026306152344e+00) (5, -1.25272369384765625000e+01) (6, 5.84661769866943359375e+00) (7, 5.52806854248046875000e+01) (8, 5.37086296081542968750e+00) (9, -2.74873661994934082031e+00) (10, -1.69422435760498046875e+01) (11, 2.17473363876342773438e+00) (0, -1.50000000000000000000e+03) (1, 6.29506301879882812500e+00) (2, 2.75962799787521362305e-02) (3, 3.81740307807922363281e+00) (4, 5.91717102050781250000e+02) (5, 2.53112226724624633789e-01) (6, -8.03656982421875000000e+02) (7, -2.82840490341186523438e+00) (8, -1.50000000000000000000e+03) (9, 1.61060079932212829590e-01) (10, 1.29479372501373291016e+00) (11, -3.16633343696594238281e+00) (12, 1.68569117784500122070e-01) (13, -7.82825708389282226562e-01) (14, -3.36894690990447998047e-01) (15, -1.85326731204986572266e+00) (16, -6.90875649452209472656e-01) (17, -2.20201939344406127930e-01) (18, 5.36793112754821777344e-01) (19, 5.87379097938537597656e-01) (20, 5.86983799934387207031e-01) (21, 1.17595292627811431885e-01) (22, 1.87855553627014160156e+00) (23, -3.36565747857093811035e-02) (24, -2.10196048021316528320e-01) (25, -7.67247974872589111328e-02) (26, 3.77328306436538696289e-01) (27, -2.37523734569549560547e-01) (28, 9.90094318985939025879e-02) (12, 5.19311130046844482422e-01) (13, 5.89545480906963348389e-02) (14, -6.85261040925979614258e-02) (15, -2.15272158384323120117e-02) (16, -3.70411813259124755859e-01) (17, -5.49797154963016510010e-02) (18, 6.38686958700418472290e-03) (19, -1.22939360141754150391e+00) (20, 2.49623388051986694336e-01) (21, 8.90649616718292236328e-01) (22, -3.74413657188415527344e+00) (23, 9.66200828552246093750e-01) (24, 1.99114367365837097168e-01) (25, 1.79041191935539245605e-01) (26, 1.34779584407806396484e+00) (27, 9.19726133346557617188e-01) (28, -1.60690248012542724609e-01) 
