FANN_FLO_2.1
num_layers=3
learning_rate=0.700000
connection_rate=1.000000
network_type=0
learning_momentum=0.000000
training_algorithm=0
train_error_function=1
train_stop_function=0
cascade_output_change_fraction=0.010000
quickprop_decay=-0.000100
quickprop_mu=1.750000
rprop_increase_factor=1.200000
rprop_decrease_factor=0.500000
rprop_delta_min=0.000000
rprop_delta_max=50.000000
rprop_delta_zero=0.100000
cascade_output_stagnation_epochs=12
cascade_candidate_change_fraction=0.010000
cascade_candidate_stagnation_epochs=12
cascade_max_out_epochs=150
cascade_min_out_epochs=50
cascade_max_cand_epochs=150
cascade_min_cand_epochs=50
cascade_num_candidate_groups=2
bit_fail_limit=3.49999994039535522461e-01
cascade_candidate_limit=1.00000000000000000000e+03
cascade_weight_multiplier=4.00000005960464477539e-01
cascade_activation_functions_count=10
cascade_activation_functions=3 5 7 8 10 11 14 15 16 17 
cascade_activation_steepnesses_count=4
cascade_activation_steepnesses=2.50000000000000000000e-01 5.00000000000000000000e-01 7.50000000000000000000e-01 1.00000000000000000000e+00 
layer_sizes=12 17 3 
scale_included=0
neurons (num_inputs, activation_function, activation_steepness)=(0, 0, 0.00000000000000000000e+00) (0, 0, 0.00000000000000000000e+00) (0, 0, 0.00000000000000000000e+00) (0, 0, 0.00000000000000000000e+00) (0, 0, 0.00000000000000000000e+00) (0, 0, 0.00000000000000000000e+00) (0, 0, 0.00000000000000000000e+00) (0, 0, 0.00000000000000000000e+00) (0, 0, 0.00000000000000000000e+00) (0, 0, 0.00000000000000000000e+00) (0, 0, 0.00000000000000000000e+00) (0, 0, 0.00000000000000000000e+00) (12, 4, 5.00000000000000000000e-01) (12, 4, 5.00000000000000000000e-01) (12, 4, 5.00000000000000000000e-01) (12, 4, 5.00000000000000000000e-01) (12, 4, 5.00000000000000000000e-01) (12, 4, 5.00000000000000000000e-01) (12, 4, 5.00000000000000000000e-01) (12, 4, 5.00000000000000000000e-01) (12, 4, 5.00000000000000000000e-01) (12, 4, 5.00000000000000000000e-01) (12, 4, 5.00000000000000000000e-01) (12, 4, 5.00000000000000000000e-01) (12, 4, 5.00000000000000000000e-01) (12, 4, 5.00000000000000000000e-01) (12, 4, 5.00000000000000000000e-01) (12, 4, 5.00000000000000000000e-01) (0, 0, 0.00000000000000000000e+00) (17, 4, 5.00000000000000000000e-01) (17, 4, 5.00000000000000000000e-01) (0, 0, 0.00000000000000000000e+00) 
connections (connected_to_neuron, weight)=(0, 1.79864719510078430176e-01) (1, -7.03404486179351806641e-01) (2, 6.68088018894195556641e-01) (3, -1.12637448310852050781e+00) (4, -3.61216115951538085938e+00) (5, 1.85475647449493408203e+00) (6, 7.28631556034088134766e-01) (7, 3.05086523294448852539e-01) (8, -4.50622320175170898438e-01) (9, -1.45038664340972900391e-01) (10, -3.29515278339385986328e-01) (11, -9.57441702485084533691e-02) (0, -2.12984895706176757812e+00) (1, 9.24384653568267822266e-01) (2, 2.20681995153427124023e-01) (3, -2.29537272453308105469e+00) (4, -2.09471321105957031250e+00) (5, -1.81591463088989257812e+00) (6, 6.50663793087005615234e-01) (7, 1.01219868659973144531e+00) (8, -2.80634832382202148438e+00) (9, -1.72496795654296875000e+00) (10, 7.36085534095764160156e-01) (11, -1.21715940535068511963e-01) (0, 1.14870928227901458740e-01) (1, -1.86137095093727111816e-01) (2, -9.15557444095611572266e-01) (3, -2.76986449956893920898e-01) (4, -5.79523518681526184082e-02) (5, -1.76911279559135437012e-01) (6, 2.48811662197113037109e-01) (7, 3.46049278974533081055e-01) (8, 2.42143169045448303223e-01) (9, -8.11174392700195312500e-01) (10, -5.74603557586669921875e-01) (11, -1.37415719032287597656e+00) (0, -6.15453541278839111328e-01) (1, -9.20435965061187744141e-01) (2, 5.80596290528774261475e-02) (3, -8.65058720111846923828e-01) (4, -1.71633899211883544922e+00) (5, 1.62001061439514160156e+00) (6, 6.91445827484130859375e-01) (7, -1.30926716327667236328e+00) (8, -1.46953016519546508789e-01) (9, -4.16209638118743896484e-01) (10, -8.72951388359069824219e-01) (11, -5.38392364978790283203e-01) (0, -4.63398545980453491211e-01) (1, 7.34104156494140625000e-01) (2, -6.15102052688598632812e-01) (3, -3.61436307430267333984e-01) (4, 2.33556434512138366699e-01) (5, -5.49283683300018310547e-01) (6, 5.82887604832649230957e-02) (7, 3.75359416007995605469e-01) (8, -1.86916756629943847656e+00) (9, -5.46000123023986816406e-01) (10, -4.41099196672439575195e-01) (11, -1.58284771442413330078e+00) (0, -3.61526823043823242188e+00) (1, 1.98031246662139892578e+00) (2, 6.38399243354797363281e-01) (3, -7.42876863479614257812e+00) (4, -3.78351640701293945312e+00) (5, -2.99286127090454101562e+00) (6, -3.96695852279663085938e-01) (7, 8.59570801258087158203e-01) (8, 2.49448299407958984375e+00) (9, -5.91979932785034179688e+00) (10, -4.98930335044860839844e-01) (11, 6.82238757610321044922e-01) (0, -8.42613518238067626953e-01) (1, 1.24114310741424560547e+00) (2, -7.73251593112945556641e-01) (3, -3.46190905570983886719e+00) (4, -2.80601549148559570312e+00) (5, -1.42333400249481201172e+00) (6, 9.56496179103851318359e-01) (7, 3.79453986883163452148e-01) (8, -4.11632490158081054688e+00) (9, -3.06515216827392578125e+00) (10, 2.48583972454071044922e-01) (11, -4.66626316308975219727e-01) (0, -4.18067836761474609375e+00) (1, 1.88661146163940429688e+00) (2, -2.97930359840393066406e-01) (3, 2.31929945945739746094e+00) (4, -1.89156436920166015625e+00) (5, 1.64138221740722656250e+00) (6, 1.25567638874053955078e+00) (7, 1.48337376117706298828e+00) (8, -3.27743172645568847656e+00) (9, 1.73472869396209716797e+00) (10, -1.36099767684936523438e+00) (11, -3.62522810697555541992e-01) (0, -6.98751986026763916016e-01) (1, 3.79307121038436889648e-01) (2, -6.61684870719909667969e-01) (3, -2.66579627990722656250e-01) (4, 8.40198025107383728027e-02) (5, -3.76331537961959838867e-01) (6, -7.13616386055946350098e-02) (7, 3.27356994152069091797e-01) (8, -6.83705747127532958984e-01) (9, -5.66534936428070068359e-01) (10, -4.61986631155014038086e-01) (11, -1.55122065544128417969e+00) (0, 3.36494946479797363281e+00) (1, -1.85221958160400390625e+00) (2, -1.14498400688171386719e+00) (3, -3.45817756652832031250e+00) (4, -1.90757811069488525391e+00) (5, 4.53233289718627929688e+00) (6, 5.71297071874141693115e-02) (7, 2.30323481559753417969e+00) (8, 1.69674015045166015625e+00) (9, -4.47407007217407226562e+00) (10, -2.20557546615600585938e+00) (11, 3.34755837917327880859e-01) (0, -3.13740324974060058594e+00) (1, -3.89642447233200073242e-01) (2, -2.25791525840759277344e+00) (3, -2.99236655235290527344e-01) (4, -1.17681777477264404297e+00) (5, -1.79586589336395263672e+00) (6, 1.16916680335998535156e+00) (7, -1.17694604396820068359e+00) (8, 7.10921049118041992188e-01) (9, -2.93105506896972656250e+00) (10, -2.53972744941711425781e+00) (11, 6.85325384140014648438e-01) (0, -1.43689620494842529297e+00) (1, -2.65913993120193481445e-01) (2, 1.93349998444318771362e-02) (3, -6.73647820949554443359e-01) (4, 1.09835410118103027344e+00) (5, 2.83183693885803222656e-01) (6, 2.94729322195053100586e-01) (7, 1.54955255985260009766e+00) (8, -1.14470827579498291016e+00) (9, -1.56493151187896728516e+00) (10, -1.03413426876068115234e+00) (11, -9.86575603485107421875e-01) (0, -1.47152185440063476562e+00) (1, 1.01781404018402099609e+00) (2, -2.11261725425720214844e+00) (3, -2.52015888690948486328e-01) (4, -4.94791120290756225586e-01) (5, -9.44454371929168701172e-01) (6, 6.76972389221191406250e-01) (7, -1.20983840897679328918e-02) (8, 3.38566720485687255859e-01) (9, -5.41926622390747070312e-01) (10, -1.59266877174377441406e+00) (11, -1.43341016769409179688e+00) (0, -6.28822374343872070312e+00) (1, 1.99482989311218261719e+00) (2, 6.77288293838500976562e+00) (3, 1.37901866436004638672e+00) (4, -1.29281568527221679688e+00) (5, -2.76059651374816894531e+00) (6, -2.01202124357223510742e-01) (7, 4.76776331663131713867e-01) (8, -1.67667463421821594238e-01) (9, 2.70458340644836425781e-01) (10, 1.66075789928436279297e+00) (11, -2.57286691665649414062e+00) (0, -3.09648346900939941406e+00) (1, 6.84631466865539550781e-01) (2, 1.43679189682006835938e+00) (3, 7.36717879772186279297e-01) (4, -1.88242399692535400391e+00) (5, 1.83334127068519592285e-01) (6, 3.79100054502487182617e-01) (7, 7.25268602371215820312e-01) (8, -1.31378805637359619141e+00) (9, -1.45996004343032836914e-01) (10, 6.47073090076446533203e-01) (11, -5.08222639560699462891e-01) (0, -2.57897210121154785156e+00) (1, 8.26043128967285156250e+00) (2, 1.13813037872314453125e+01) (3, -2.23610186576843261719e+00) (4, -1.09658682346343994141e+00) (5, -1.58800077438354492188e+00) (6, 1.00182786583900451660e-01) (7, 2.41307601332664489746e-01) (8, 1.41702353954315185547e-01) (9, -1.37760326266288757324e-01) (10, -3.64128851890563964844e+00) (11, -6.27203845977783203125e+00) (12, -7.07554936408996582031e-01) (13, -1.75579714775085449219e+00) (14, -6.70023024082183837891e-01) (15, -2.02062201499938964844e+00) (16, 3.20529967546463012695e-01) (17, -2.74367594718933105469e+00) (18, -4.03771609067916870117e-01) (19, 1.45518767833709716797e+00) (20, 1.10142650082707405090e-02) (21, 1.41136825084686279297e+00) (22, 3.10682153701782226562e+00) (23, -1.42235743999481201172e+00) (24, 9.89174246788024902344e-01) (25, 1.45259559154510498047e+00) (26, -6.26430332660675048828e-01) (27, 6.99527621269226074219e-01) (28, -4.70785498619079589844e-02) (12, 2.88261628150939941406e+00) (13, -3.13410735130310058594e+00) (14, -7.65035688877105712891e-01) (15, 2.00243496894836425781e+00) (16, -1.11417841911315917969e+00) (17, -4.62269926071166992188e+00) (18, -3.77953410148620605469e+00) (19, -3.34897351264953613281e+00) (20, -6.29746139049530029297e-01) (21, 9.63991358876228332520e-02) (22, 2.53057432174682617188e+00) (23, -1.50065386295318603516e+00) (24, 1.36588633060455322266e+00) (25, -6.01567745208740234375e+00) (26, -2.33223581314086914062e+00) (27, 6.50771141052246093750e+00) (28, 9.77341830730438232422e-01) 
