FANN_FLO_2.1
num_layers=3
learning_rate=0.700000
connection_rate=1.000000
network_type=0
learning_momentum=0.000000
training_algorithm=0
train_error_function=1
train_stop_function=0
cascade_output_change_fraction=0.010000
quickprop_decay=-0.000100
quickprop_mu=1.750000
rprop_increase_factor=1.200000
rprop_decrease_factor=0.500000
rprop_delta_min=0.000000
rprop_delta_max=50.000000
rprop_delta_zero=0.100000
cascade_output_stagnation_epochs=12
cascade_candidate_change_fraction=0.010000
cascade_candidate_stagnation_epochs=12
cascade_max_out_epochs=150
cascade_min_out_epochs=50
cascade_max_cand_epochs=150
cascade_min_cand_epochs=50
cascade_num_candidate_groups=2
bit_fail_limit=3.49999994039535522461e-01
cascade_candidate_limit=1.00000000000000000000e+03
cascade_weight_multiplier=4.00000005960464477539e-01
cascade_activation_functions_count=10
cascade_activation_functions=3 5 7 8 10 11 14 15 16 17 
cascade_activation_steepnesses_count=4
cascade_activation_steepnesses=2.50000000000000000000e-01 5.00000000000000000000e-01 7.50000000000000000000e-01 1.00000000000000000000e+00 
layer_sizes=12 17 3 
scale_included=0
neurons (num_inputs, activation_function, activation_steepness)=(0, 0, 0.00000000000000000000e+00) (0, 0, 0.00000000000000000000e+00) (0, 0, 0.00000000000000000000e+00) (0, 0, 0.00000000000000000000e+00) (0, 0, 0.00000000000000000000e+00) (0, 0, 0.00000000000000000000e+00) (0, 0, 0.00000000000000000000e+00) (0, 0, 0.00000000000000000000e+00) (0, 0, 0.00000000000000000000e+00) (0, 0, 0.00000000000000000000e+00) (0, 0, 0.00000000000000000000e+00) (0, 0, 0.00000000000000000000e+00) (12, 4, 5.00000000000000000000e-01) (12, 4, 5.00000000000000000000e-01) (12, 4, 5.00000000000000000000e-01) (12, 4, 5.00000000000000000000e-01) (12, 4, 5.00000000000000000000e-01) (12, 4, 5.00000000000000000000e-01) (12, 4, 5.00000000000000000000e-01) (12, 4, 5.00000000000000000000e-01) (12, 4, 5.00000000000000000000e-01) (12, 4, 5.00000000000000000000e-01) (12, 4, 5.00000000000000000000e-01) (12, 4, 5.00000000000000000000e-01) (12, 4, 5.00000000000000000000e-01) (12, 4, 5.00000000000000000000e-01) (12, 4, 5.00000000000000000000e-01) (12, 4, 5.00000000000000000000e-01) (0, 0, 0.00000000000000000000e+00) (17, 4, 5.00000000000000000000e-01) (17, 4, 5.00000000000000000000e-01) (0, 0, 0.00000000000000000000e+00) 
connections (connected_to_neuron, weight)=(0, -1.21411895751953125000e+00) (1, 7.23990011215209960938e+00) (2, 1.01100740432739257812e+01) (3, -2.19912004470825195312e+00) (4, -1.26534867286682128906e+00) (5, -1.25122249126434326172e+00) (6, 2.04546988010406494141e-01) (7, 3.78072053194046020508e-01) (8, -4.22410368919372558594e-01) (9, -3.83472651243209838867e-01) (10, -2.84148025512695312500e+00) (11, -6.39354372024536132812e+00) (0, 5.60673856735229492188e+00) (1, -1.67869341373443603516e+00) (2, -3.39320898056030273438e+00) (3, -1.30676460266113281250e+00) (4, 3.83196067810058593750e+00) (5, 2.37159705162048339844e+00) (6, 2.83184051513671875000e-01) (7, 1.44175618886947631836e-01) (8, 1.40321612358093261719e+00) (9, 9.66209888458251953125e-01) (10, -3.35658812522888183594e+00) (11, -2.55717068910598754883e-01) (0, -1.48643004894256591797e+00) (1, -4.06896412372589111328e-01) (2, -2.46938109397888183594e+00) (3, -9.62397396564483642578e-01) (4, 2.63310551643371582031e-01) (5, -9.44017022848129272461e-02) (6, -7.05144643783569335938e-01) (7, 7.93716669082641601562e-01) (8, -1.76638066768646240234e-01) (9, -3.55843400955200195312e+00) (10, -4.53343105316162109375e+00) (11, 3.40858757495880126953e-01) (0, -1.64814662933349609375e+00) (1, 2.17990159988403320312e+00) (2, 2.01118633151054382324e-01) (3, -2.34609055519104003906e+00) (4, -5.01231956481933593750e+00) (5, -2.24738883972167968750e+00) (6, 9.47931051254272460938e-01) (7, 1.28703057765960693359e+00) (8, -6.28711462020874023438e+00) (9, -2.84711790084838867188e+00) (10, 1.17428135871887207031e+00) (11, 2.71752178668975830078e-01) (0, -2.10579895973205566406e+00) (1, 1.88377809524536132812e+00) (2, 1.96587502956390380859e+00) (3, -2.38830733299255371094e+00) (4, -5.84168910980224609375e+00) (5, 2.57745623588562011719e+00) (6, 4.39122915267944335938e-01) (7, -3.65901589393615722656e-01) (8, 1.24281835556030273438e+00) (9, -2.10014796257019042969e+00) (10, -1.05772447586059570312e+00) (11, 2.62620782852172851562e+00) (0, 1.38581261038780212402e-01) (1, 6.18100285530090332031e-01) (2, -7.89187312126159667969e-01) (3, 3.81075680255889892578e-01) (4, 1.16458010673522949219e+00) (5, 1.44817149639129638672e+00) (6, -2.54210144281387329102e-01) (7, 6.01767480373382568359e-01) (8, 1.55584812164306640625e+00) (9, -8.02032053470611572266e-01) (10, -1.85639429092407226562e+00) (11, -1.85130059719085693359e+00) (0, -1.59713387489318847656e+00) (1, 8.48755240440368652344e-01) (2, -1.95662304759025573730e-01) (3, -9.72797349095344543457e-02) (4, -8.01442205905914306641e-01) (5, -2.97896247357130050659e-02) (6, -3.72063994407653808594e-01) (7, 2.08450421690940856934e-01) (8, -7.10392594337463378906e-01) (9, -4.88012403249740600586e-01) (10, -3.29750835895538330078e-01) (11, -1.22351777553558349609e+00) (0, -2.67127132415771484375e+00) (1, -3.30492913722991943359e-01) (2, -5.68766772747039794922e-01) (3, -5.50709199905395507812e+00) (4, -4.30448865890502929688e+00) (5, -2.08432722091674804688e+00) (6, -7.06414997577667236328e-01) (7, 1.00515854358673095703e+00) (8, 5.99766075611114501953e-01) (9, -5.84819316864013671875e+00) (10, -3.04158478975296020508e-01) (11, 2.17213463783264160156e+00) (0, -2.53297895193099975586e-01) (1, -5.83024956285953521729e-02) (2, -2.69293338060379028320e-01) (3, -4.36511725187301635742e-01) (4, -4.26096975803375244141e-01) (5, 1.96138575673103332520e-01) (6, 1.19899503886699676514e-01) (7, -2.93574631214141845703e-01) (8, 1.46110147237777709961e-01) (9, -3.25526148080825805664e-01) (10, -3.56070131063461303711e-01) (11, -1.90678489208221435547e+00) (0, -4.88251543045043945312e+00) (1, 3.39392995834350585938e+00) (2, 1.93103408813476562500e+00) (3, 1.40473747253417968750e+00) (4, -1.81659495830535888672e+00) (5, 2.53621625900268554688e+00) (6, 6.63547873497009277344e-01) (7, 1.56104469299316406250e+00) (8, -9.63368952274322509766e-01) (9, 1.56544125080108642578e+00) (10, -2.30863642692565917969e+00) (11, -5.86743474006652832031e-01) (0, -1.87621915340423583984e+00) (1, 2.09406948089599609375e+00) (2, 2.33149290084838867188e-01) (3, -8.64507734775543212891e-01) (4, -1.97976982593536376953e+00) (5, 1.39321833848953247070e-01) (6, 1.47374212741851806641e-01) (7, 7.61890888214111328125e-01) (8, -2.56931757926940917969e+00) (9, -9.07515585422515869141e-01) (10, -7.60680079460144042969e-01) (11, -1.15866494178771972656e+00) (0, -9.99155104160308837891e-01) (1, 1.36193501949310302734e+00) (2, -7.27376043796539306641e-01) (3, -6.95178389549255371094e-01) (4, -1.05596697330474853516e+00) (5, 3.09202313423156738281e-01) (6, 1.89405046403408050537e-02) (7, 6.43673121929168701172e-01) (8, -1.22384047508239746094e+00) (9, -5.11331439018249511719e-01) (10, -1.00706148147583007812e+00) (11, -1.93713390827178955078e+00) (0, -2.24129289388656616211e-01) (1, 6.58211112022399902344e-02) (2, 1.28177285194396972656e-01) (3, -5.04902362823486328125e-01) (4, -7.43919253349304199219e-01) (5, -2.78257690370082855225e-02) (6, 8.36461842060089111328e-01) (7, -1.50302445888519287109e+00) (8, -2.64718267135322093964e-03) (9, -5.54134547710418701172e-01) (10, -6.94643199443817138672e-01) (11, -2.10346221923828125000e+00) (0, 4.98331218957901000977e-01) (1, 5.86079716682434082031e-01) (2, -1.38237833976745605469e+00) (3, -6.42924726009368896484e-01) (4, 7.63758718967437744141e-01) (5, -3.99041064083576202393e-02) (6, -2.18920812010765075684e-01) (7, 6.30179464817047119141e-01) (8, 6.43111646175384521484e-01) (9, -1.17984807491302490234e+00) (10, -1.68001747131347656250e+00) (11, -1.51623106002807617188e+00) (0, -6.07791280746459960938e+00) (1, 9.33278739452362060547e-01) (2, 5.12756252288818359375e+00) (3, 1.94007992744445800781e+00) (4, -1.11282873153686523438e+00) (5, -1.18471848964691162109e+00) (6, -1.06438182294368743896e-01) (7, 4.06268656253814697266e-01) (8, 9.45703685283660888672e-01) (9, 1.01266777515411376953e+00) (10, 4.35955345630645751953e-01) (11, -1.48776924610137939453e+00) (0, -8.93452346324920654297e-01) (1, 1.19822323322296142578e+00) (2, 6.83888673782348632812e-01) (3, -1.25128805637359619141e+00) (4, -1.32769417762756347656e+00) (5, 3.11523270606994628906e+00) (6, -5.07523477077484130859e-01) (7, 4.50873486697673797607e-02) (8, -2.83447563648223876953e-01) (9, 5.17425015568733215332e-02) (10, -2.54119491577148437500e+00) (11, 3.49034190177917480469e-01) (12, 6.35386765003204345703e-01) (13, 1.57268774509429931641e+00) (14, 3.91174459457397460938e+00) (15, -5.45444786548614501953e-01) (16, 1.88627672195434570312e+00) (17, -1.23055815696716308594e+00) (18, -1.30443680286407470703e+00) (19, -2.82947993278503417969e+00) (20, -5.03180205821990966797e-01) (21, 1.13326632976531982422e+00) (22, -5.10116159915924072266e-01) (23, 4.33908522129058837891e-01) (24, -4.54107910394668579102e-01) (25, 6.12639546394348144531e-01) (26, 1.81069839000701904297e+00) (27, -2.30993509292602539062e+00) (28, -1.27247118949890136719e+00) (12, 6.35184526443481445312e+00) (13, 2.68487596511840820312e+00) (14, 1.54854130744934082031e+00) (15, -5.08504390716552734375e+00) (16, 3.58811593055725097656e+00) (17, -1.76810753345489501953e+00) (18, -1.53698310256004333496e-01) (19, -2.52770543098449707031e+00) (20, -1.18453145027160644531e-01) (21, -3.50367236137390136719e+00) (22, -2.22175526618957519531e+00) (23, -5.64922928810119628906e-01) (24, 9.98368382453918457031e-01) (25, -1.65631818771362304688e+00) (26, -4.84372377395629882812e+00) (27, -1.79917085915803909302e-02) (28, -1.52027118206024169922e+00) 
